digraph Tree {
node [shape=box, style="filled", color="black", fontname="helvetica"] ;
edge [fontname="helvetica"] ;
0 [label=<health &le; 0.5<br/>entropy = 1.717<br/>samples = 10368<br/>value = [3456, 3413, 2, 3235, 262]>, fillcolor="#fffefe"] ;
1 [label=<entropy = 0.0<br/>samples = 3456<br/>value = [3456, 0, 0, 0, 0]>, fillcolor="#e58139"] ;
0 -> 1 [labeldistance=2.5, labelangle=45, headlabel="True"] ;
2 [label=<has_nurs &le; 3.5<br/>entropy = 1.198<br/>samples = 6912<br/>value = [0, 3413, 2, 3235, 262]>, fillcolor="#f9fef5"] ;
0 -> 2 [labeldistance=2.5, labelangle=-45, headlabel="False"] ;
3 [label=<has_nurs &le; 1.5<br/>entropy = 1.195<br/>samples = 5532<br/>value = [0, 3246, 2, 2022, 262]>, fillcolor="#d1f6ba"] ;
2 -> 3 ;
4 [label=<parents &le; 1.5<br/>entropy = 1.095<br/>samples = 2782<br/>value = [0, 1117, 0, 1611, 54]>, fillcolor="#c5c4f7"] ;
3 -> 4 ;
5 [label=<health &le; 1.5<br/>entropy = 0.784<br/>samples = 1842<br/>value = [0, 430, 0, 1412, 0]>, fillcolor="#7775ed"] ;
4 -> 5 ;
6 [label=<entropy = 0.461<br/>samples = 912<br/>value = [0, 89, 0, 823, 0]>, fillcolor="#514ee8"] ;
5 -> 6 ;
7 [label=<entropy = 0.948<br/>samples = 930<br/>value = [0, 341, 0, 589, 0]>, fillcolor="#adacf4"] ;
5 -> 7 ;
8 [label=<has_nurs &le; 0.5<br/>entropy = 1.042<br/>samples = 940<br/>value = [0, 687, 0, 199, 54]>, fillcolor="#a8ee7d"] ;
4 -> 8 ;
9 [label=<entropy = 0.987<br/>samples = 460<br/>value = [0, 261, 0, 199, 0]>, fillcolor="#e0f9d0"] ;
8 -> 9 ;
10 [label=<entropy = 0.507<br/>samples = 480<br/>value = [0, 426, 0, 0, 54]>, fillcolor="#8ce852"] ;
8 -> 10 ;
11 [label=<parents &le; 0.5<br/>entropy = 0.985<br/>samples = 2750<br/>value = [0, 2129, 2, 411, 208]>, fillcolor="#9eec6e"] ;
3 -> 11 ;
12 [label=<health &le; 1.5<br/>entropy = 0.991<br/>samples = 922<br/>value = [0, 511, 0, 411, 0]>, fillcolor="#e5fad8"] ;
11 -> 12 ;
13 [label=<entropy = 0.918<br/>samples = 460<br/>value = [0, 153, 0, 307, 0]>, fillcolor="#9d9cf2"] ;
12 -> 13 ;
14 [label=<entropy = 0.769<br/>samples = 462<br/>value = [0, 358, 0, 104, 0]>, fillcolor="#a1ed73"] ;
12 -> 14 ;
15 [label=<health &le; 1.5<br/>entropy = 0.523<br/>samples = 1828<br/>value = [0, 1618, 2, 0, 208]>, fillcolor="#8ce853"] ;
11 -> 15 ;
16 [label=<entropy = 0.0<br/>samples = 921<br/>value = [0, 921, 0, 0, 0]>, fillcolor="#7be539"] ;
15 -> 16 ;
17 [label=<entropy = 0.799<br/>samples = 907<br/>value = [0, 697, 2, 0, 208]>, fillcolor="#a3ed74"] ;
15 -> 17 ;
18 [label=<health &le; 1.5<br/>entropy = 0.532<br/>samples = 1380<br/>value = [0, 167, 0, 1213, 0]>, fillcolor="#5754e9"] ;
2 -> 18 ;
19 [label=<children &le; 0.5<br/>entropy = 0.073<br/>samples = 681<br/>value = [0, 6, 0, 675, 0]>, fillcolor="#3e3be5"] ;
18 -> 19 ;
20 [label=<form &le; 0.5<br/>entropy = 0.236<br/>samples = 155<br/>value = [0, 6, 0, 149, 0]>, fillcolor="#4441e6"] ;
19 -> 20 ;
21 [label=<entropy = 0.639<br/>samples = 37<br/>value = [0, 6, 0, 31, 0]>, fillcolor="#625fea"] ;
20 -> 21 ;
22 [label=<entropy = 0.0<br/>samples = 118<br/>value = [0, 0, 0, 118, 0]>, fillcolor="#3c39e5"] ;
20 -> 22 ;
23 [label=<entropy = 0.0<br/>samples = 526<br/>value = [0, 0, 0, 526, 0]>, fillcolor="#3c39e5"] ;
19 -> 23 ;
24 [label=<housing &le; 0.5<br/>entropy = 0.779<br/>samples = 699<br/>value = [0, 161, 0, 538, 0]>, fillcolor="#7674ed"] ;
18 -> 24 ;
25 [label=<finance &le; 0.5<br/>entropy = 0.992<br/>samples = 239<br/>value = [0, 107, 0, 132, 0]>, fillcolor="#dad9fa"] ;
24 -> 25 ;
26 [label=<entropy = 0.91<br/>samples = 123<br/>value = [0, 83, 0, 40, 0]>, fillcolor="#bbf298"] ;
25 -> 26 ;
27 [label=<entropy = 0.736<br/>samples = 116<br/>value = [0, 24, 0, 92, 0]>, fillcolor="#6f6dec"] ;
25 -> 27 ;
28 [label=<children &le; 1.5<br/>entropy = 0.522<br/>samples = 460<br/>value = [0, 54, 0, 406, 0]>, fillcolor="#5653e8"] ;
24 -> 28 ;
29 [label=<entropy = 0.799<br/>samples = 223<br/>value = [0, 54, 0, 169, 0]>, fillcolor="#7a78ed"] ;
28 -> 29 ;
30 [label=<entropy = 0.0<br/>samples = 237<br/>value = [0, 0, 0, 237, 0]>, fillcolor="#3c39e5"] ;
28 -> 30 ;
}
